digraph Tree {
node [shape=box, style="filled, rounded", color="black", fontname=helvetica] ;
edge [fontname=helvetica] ;
0 [label="DemAge <= 44.5\ngini = 0.37\nsamples = 15556\nvalue = [11699, 3857]", fillcolor="#eeab7a"] ;
1 [label="DemAffl <= 10.5\ngini = 0.5\nsamples = 3829\nvalue = [1812, 2017]", fillcolor="#ebf5fc"] ;
0 -> 1 [labeldistance=2.5, labelangle=45, headlabel="True"] ;
2 [label="DemAge <= 39.5\ngini = 0.49\nsamples = 2594\nvalue = [1514, 1080]", fillcolor="#f8dbc6"] ;
1 -> 2 ;
3 [label="DemAffl <= 7.5\ngini = 0.5\nsamples = 1600\nvalue = [823, 777]", fillcolor="#fef8f4"] ;
2 -> 3 ;
4 [label="DemAffl <= 5.5\ngini = 0.48\nsamples = 650\nvalue = [396, 254]", fillcolor="#f6d2b8"] ;
3 -> 4 ;
5 [label="gini = 0.43\nsamples = 238\nvalue = [165, 73]", fillcolor="#f1b991"] ;
4 -> 5 ;
6 [label="gini = 0.49\nsamples = 412\nvalue = [231, 181]", fillcolor="#f9e4d4"] ;
4 -> 6 ;
7 [label="DemAge <= 19.5\ngini = 0.49\nsamples = 950\nvalue = [427, 523]", fillcolor="#dbedfa"] ;
3 -> 7 ;
8 [label="gini = 0.0\nsamples = 6\nvalue = [6, 0]", fillcolor="#e58139"] ;
7 -> 8 ;
9 [label="gini = 0.49\nsamples = 944\nvalue = [421, 523]", fillcolor="#d8ecfa"] ;
7 -> 9 ;
10 [label="DemAffl <= 6.5\ngini = 0.42\nsamples = 994\nvalue = [691, 303]", fillcolor="#f0b890"] ;
2 -> 10 ;
11 [label="DemAffl <= 4.5\ngini = 0.32\nsamples = 326\nvalue = [260, 66]", fillcolor="#eca16b"] ;
10 -> 11 ;
12 [label="gini = 0.23\nsamples = 100\nvalue = [87, 13]", fillcolor="#e99457"] ;
11 -> 12 ;
13 [label="gini = 0.36\nsamples = 226\nvalue = [173, 53]", fillcolor="#eda876"] ;
11 -> 13 ;
14 [label="DemAffl <= 9.5\ngini = 0.46\nsamples = 668\nvalue = [431, 237]", fillcolor="#f3c6a6"] ;
10 -> 14 ;
15 [label="gini = 0.44\nsamples = 529\nvalue = [356, 173]", fillcolor="#f2be99"] ;
14 -> 15 ;
16 [label="gini = 0.5\nsamples = 139\nvalue = [75, 64]", fillcolor="#fbede2"] ;
14 -> 16 ;
17 [label="DemAffl <= 14.5\ngini = 0.37\nsamples = 1235\nvalue = [298, 937]", fillcolor="#78bced"] ;
1 -> 17 ;
18 [label="DemAge <= 39.5\ngini = 0.44\nsamples = 850\nvalue = [272, 578]", fillcolor="#96cbf1"] ;
17 -> 18 ;
19 [label="DemCluster <= 24.5\ngini = 0.38\nsamples = 540\nvalue = [137, 403]", fillcolor="#7cbeee"] ;
18 -> 19 ;
20 [label="gini = 0.44\nsamples = 171\nvalue = [56, 115]", fillcolor="#99cdf2"] ;
19 -> 20 ;
21 [label="gini = 0.34\nsamples = 369\nvalue = [81, 288]", fillcolor="#71b9ec"] ;
19 -> 21 ;
22 [label="PromSpend <= 21335.24\ngini = 0.49\nsamples = 310\nvalue = [135, 175]", fillcolor="#d2e9f9"] ;
18 -> 22 ;
23 [label="gini = 0.49\nsamples = 303\nvalue = [135, 168]", fillcolor="#d8ecfa"] ;
22 -> 23 ;
24 [label="gini = 0.0\nsamples = 7\nvalue = [0, 7]", fillcolor="#399de5"] ;
22 -> 24 ;
25 [label="DemAffl <= 18.5\ngini = 0.13\nsamples = 385\nvalue = [26, 359]", fillcolor="#47a4e7"] ;
17 -> 25 ;
26 [label="DemAge <= 38.5\ngini = 0.18\nsamples = 258\nvalue = [26, 232]", fillcolor="#4fa8e8"] ;
25 -> 26 ;
27 [label="gini = 0.11\nsamples = 166\nvalue = [10, 156]", fillcolor="#46a3e7"] ;
26 -> 27 ;
28 [label="gini = 0.29\nsamples = 92\nvalue = [16, 76]", fillcolor="#63b2ea"] ;
26 -> 28 ;
29 [label="gini = 0.0\nsamples = 127\nvalue = [0, 127]", fillcolor="#399de5"] ;
25 -> 29 ;
30 [label="DemAffl <= 12.5\ngini = 0.26\nsamples = 11727\nvalue = [9887, 1840]", fillcolor="#ea985e"] ;
0 -> 30 [labeldistance=2.5, labelangle=-45, headlabel="False"] ;
31 [label="DemAffl <= 7.5\ngini = 0.22\nsamples = 10630\nvalue = [9274, 1356]", fillcolor="#e99356"] ;
30 -> 31 ;
32 [label="DemAffl <= 4.5\ngini = 0.13\nsamples = 4688\nvalue = [4363, 325]", fillcolor="#e78a48"] ;
31 -> 32 ;
33 [label="DemCluster <= 8.5\ngini = 0.07\nsamples = 1027\nvalue = [988, 39]", fillcolor="#e68641"] ;
32 -> 33 ;
34 [label="gini = 0.01\nsamples = 176\nvalue = [175, 1]", fillcolor="#e5823a"] ;
33 -> 34 ;
35 [label="gini = 0.09\nsamples = 851\nvalue = [813, 38]", fillcolor="#e68742"] ;
33 -> 35 ;
36 [label="DemAge <= 53.5\ngini = 0.14\nsamples = 3661\nvalue = [3375, 286]", fillcolor="#e78c4a"] ;
32 -> 36 ;
37 [label="gini = 0.09\nsamples = 995\nvalue = [947, 48]", fillcolor="#e68743"] ;
36 -> 37 ;
38 [label="gini = 0.16\nsamples = 2666\nvalue = [2428, 238]", fillcolor="#e88d4c"] ;
36 -> 38 ;
39 [label="DemAffl <= 10.5\ngini = 0.29\nsamples = 5942\nvalue = [4911, 1031]", fillcolor="#ea9b63"] ;
31 -> 39 ;
40 [label="DemAge <= 53.5\ngini = 0.26\nsamples = 4420\nvalue = [3736, 684]", fillcolor="#ea985d"] ;
39 -> 40 ;
41 [label="gini = 0.21\nsamples = 1266\nvalue = [1116, 150]", fillcolor="#e89254"] ;
40 -> 41 ;
42 [label="gini = 0.28\nsamples = 3154\nvalue = [2620, 534]", fillcolor="#ea9b61"] ;
40 -> 42 ;
43 [label="PromTime <= 4.5\ngini = 0.35\nsamples = 1522\nvalue = [1175, 347]", fillcolor="#eda673"] ;
39 -> 43 ;
44 [label="gini = 0.39\nsamples = 506\nvalue = [372, 134]", fillcolor="#eeae80"] ;
43 -> 44 ;
45 [label="gini = 0.33\nsamples = 1016\nvalue = [803, 213]", fillcolor="#eca26e"] ;
43 -> 45 ;
46 [label="DemAffl <= 15.5\ngini = 0.49\nsamples = 1097\nvalue = [613, 484]", fillcolor="#fae4d5"] ;
30 -> 46 ;
47 [label="PromSpend <= 2296.93\ngini = 0.47\nsamples = 850\nvalue = [533, 317]", fillcolor="#f4ccaf"] ;
46 -> 47 ;
48 [label="DemAge <= 71.5\ngini = 0.49\nsamples = 378\nvalue = [220, 158]", fillcolor="#f8dbc7"] ;
47 -> 48 ;
49 [label="gini = 0.49\nsamples = 355\nvalue = [201, 154]", fillcolor="#f9e2d1"] ;
48 -> 49 ;
50 [label="gini = 0.29\nsamples = 23\nvalue = [19, 4]", fillcolor="#ea9c63"] ;
48 -> 50 ;
51 [label="PromSpend <= 2806.92\ngini = 0.45\nsamples = 472\nvalue = [313, 159]", fillcolor="#f2c19e"] ;
47 -> 51 ;
52 [label="gini = 0.13\nsamples = 14\nvalue = [13, 1]", fillcolor="#e78b48"] ;
51 -> 52 ;
53 [label="gini = 0.45\nsamples = 458\nvalue = [300, 158]", fillcolor="#f3c3a1"] ;
51 -> 53 ;
54 [label="DemAffl <= 18.5\ngini = 0.44\nsamples = 247\nvalue = [80, 167]", fillcolor="#98ccf1"] ;
46 -> 54 ;
55 [label="PromSpend <= 12352.66\ngini = 0.48\nsamples = 175\nvalue = [72, 103]", fillcolor="#c3e2f7"] ;
54 -> 55 ;
56 [label="gini = 0.49\nsamples = 163\nvalue = [71, 92]", fillcolor="#d2e9f9"] ;
55 -> 56 ;
57 [label="gini = 0.15\nsamples = 12\nvalue = [1, 11]", fillcolor="#4ba6e7"] ;
55 -> 57 ;
58 [label="DemAffl <= 19.5\ngini = 0.2\nsamples = 72\nvalue = [8, 64]", fillcolor="#52a9e8"] ;
54 -> 58 ;
59 [label="gini = 0.35\nsamples = 31\nvalue = [7, 24]", fillcolor="#73baed"] ;
58 -> 59 ;
60 [label="gini = 0.05\nsamples = 41\nvalue = [1, 40]", fillcolor="#3e9fe6"] ;
58 -> 60 ;
}